{
  "layers": [
    {
      "name": "0",
      "kind": "Linear",
      "inputSize": 7,
      "outputSize": 64,
      "hasBiases": true,
      "weights": [
        [
          0.5236904621124268,
          0.31219255924224854,
          0.379433810710907,
          0.206839457154274,
          0.002471968298777938,
          0.46786263585090637,
          -0.07544734328985214
        ],
        [
          0.6627646684646606,
          0.35281333327293396,
          0.14441660046577454,
          0.2375359982252121,
          0.31523850560188293,
          0.6780367493629456,
          0.08740528672933578
        ],
        [
          0.2904810607433319,
          0.023125557228922844,
          0.4327566921710968,
          0.4943475127220154,
          0.35105061531066895,
          0.2601616382598877,
          0.7274630665779114
        ],
        [
          -0.24658647179603577,
          -0.14740391075611115,
          0.05661112442612648,
          0.45099565386772156,
          -0.15418554842472076,
          0.1898154765367508,
          1.3493269681930542
        ],
        [
          0.12018398940563202,
          0.7920011281967163,
          -0.33868396282196045,
          -0.0026163533329963684,
          -0.2075485736131668,
          0.5288876891136169,
          0.01613290049135685
        ],
        [
          -0.02536836266517639,
          -0.05277186632156372,
          -0.3037209212779999,
          -0.22453062236309052,
          0.15943756699562073,
          -0.2451394945383072,
          -0.11128607392311096
        ],
        [
          0.6925357580184937,
          0.6880760192871094,
          -0.12254814803600311,
          0.04390769824385643,
          0.3441493511199951,
          0.23814918100833893,
          0.8159183263778687
        ],
        [
          -0.18148867785930634,
          0.5863741636276245,
          -0.36524227261543274,
          0.16921371221542358,
          0.033989448100328445,
          0.5010285973548889,
          0.28687146306037903
        ],
        [
          0.0054051014594733715,
          -0.20285925269126892,
          -0.17339660227298737,
          -0.2370556741952896,
          0.26269614696502686,
          -0.013341885060071945,
          -0.24758213758468628
        ],
        [
          0.21890562772750854,
          0.03438263386487961,
          0.3761904537677765,
          0.1726914346218109,
          -0.048845693469047546,
          0.7037551403045654,
          0.23242352902889252
        ],
        [
          0.513222336769104,
          -0.012667879462242126,
          0.41012999415397644,
          0.13154494762420654,
          0.1603521704673767,
          0.5355490446090698,
          -0.08572982996702194
        ],
        [
          -0.05878177657723427,
          0.05829499661922455,
          0.31406617164611816,
          0.25096163153648376,
          0.4819166362285614,
          0.05283799394965172,
          -0.40391385555267334
        ],
        [
          0.19072775542736053,
          -0.21438266336917877,
          -0.30413323640823364,
          -0.2891789376735687,
          0.15106451511383057,
          -0.06634719669818878,
          -0.06857546418905258
        ],
        [
          0.4739792048931122,
          0.38917988538742065,
          0.11911267042160034,
          0.006361579056829214,
          0.15124277770519257,
          0.48499271273612976,
          -0.5339188575744629
        ],
        [
          0.053365737199783325,
          -0.013156205415725708,
          -0.09435480833053589,
          -0.10677903890609741,
          0.005739569664001465,
          0.06398630142211914,
          0.14006182551383972
        ],
        [
          0.30683761835098267,
          0.6741260886192322,
          0.26468953490257263,
          0.2209106832742691,
          0.28443291783332825,
          0.39689868688583374,
          0.5192131996154785
        ],
        [
          0.0003402306465432048,
          0.5638660788536072,
          0.19428442418575287,
          -0.07126359641551971,
          -0.18135660886764526,
          0.342085599899292,
          -0.07254619151353836
        ],
        [
          0.6158283948898315,
          0.10347145795822144,
          0.5404021143913269,
          0.10460630804300308,
          0.4303838908672333,
          0.4210778474807739,
          -0.31792986392974854
        ],
        [
          0.13443326950073242,
          0.6297389268875122,
          0.33676084876060486,
          0.6558332443237305,
          -0.02098396234214306,
          0.5729708075523376,
          0.046835340559482574
        ],
        [
          0.338365375995636,
          -0.22628942131996155,
          0.3620404601097107,
          -0.3833693265914917,
          -0.08642801642417908,
          -0.29865214228630066,
          -0.36160600185394287
        ],
        [
          0.18694135546684265,
          -0.21787743270397186,
          -0.15244051814079285,
          -0.2199164777994156,
          0.08025187253952026,
          -0.05910030007362366,
          -0.33033686876296997
        ],
        [
          0.5705010890960693,
          0.3268332779407501,
          -0.08106499165296555,
          0.41157981753349304,
          0.24838387966156006,
          0.7384612560272217,
          0.015581345185637474
        ],
        [
          0.19127506017684937,
          0.6668316125869751,
          0.17258338630199432,
          0.5098322629928589,
          0.40266314148902893,
          0.2806743383407593,
          -0.14007288217544556
        ],
        [
          0.37556570768356323,
          0.6559128165245056,
          0.47473278641700745,
          0.38662585616111755,
          0.19407185912132263,
          0.584618091583252,
          0.1928304135799408
        ],
        [
          -0.4188784658908844,
          0.08937091380357742,
          -0.3081541359424591,
          0.4933408498764038,
          0.6227899193763733,
          -0.013540631160140038,
          -1.2694175243377686
        ],
        [
          0.6636158227920532,
          0.5013896226882935,
          0.4519515633583069,
          0.12141934782266617,
          0.5077161192893982,
          0.33846595883369446,
          -0.2495296448469162
        ],
        [
          0.21901839971542358,
          0.5580257177352905,
          0.26208069920539856,
          -0.038553692400455475,
          0.4489929676055908,
          0.18816077709197998,
          0.5337849855422974
        ],
        [
          0.6707783937454224,
          0.6918089985847473,
          0.13057507574558258,
          0.10147789120674133,
          -0.04422299191355705,
          0.3810334801673889,
          0.3703193962574005
        ],
        [
          0.2028656005859375,
          0.042225971817970276,
          -0.12870021164417267,
          0.30239158868789673,
          0.5121827721595764,
          0.47707700729370117,
          -0.8835421204566956
        ],
        [
          0.4084334075450897,
          0.5966323614120483,
          -0.16200174391269684,
          0.673872172832489,
          -0.03396978974342346,
          0.6794931888580322,
          0.19791488349437714
        ],
        [
          0.5785244703292847,
          0.11424855887889862,
          0.0775507465004921,
          0.31272435188293457,
          -0.2612289488315582,
          0.13686414062976837,
          -1.4754095077514648
        ],
        [
          0.09733177721500397,
          0.5454348921775818,
          0.0327601321041584,
          0.6102472543716431,
          0.05971373990178108,
          -0.08256740123033524,
          1.6511503458023071
        ],
        [
          0.6262879371643066,
          0.6485064029693604,
          0.04013645648956299,
          0.3685254156589508,
          0.09002827852964401,
          0.639738917350769,
          0.11675737798213959
        ],
        [
          0.5156631469726562,
          0.6640658378601074,
          0.08370276540517807,
          0.10912910103797913,
          0.23936720192432404,
          0.2558387815952301,
          0.735910952091217
        ],
        [
          -0.013764862902462482,
          0.5031983852386475,
          -0.19206973910331726,
          0.5683581233024597,
          0.4400956928730011,
          0.5118284821510315,
          -0.4040695130825043
        ],
        [
          -0.19102628529071808,
          0.33708974719047546,
          -0.36936599016189575,
          0.09855291247367859,
          -0.23305407166481018,
          -0.2651331424713135,
          -0.09646081924438477
        ],
        [
          0.6335008144378662,
          0.5532475113868713,
          0.46117621660232544,
          0.30103352665901184,
          0.23913033306598663,
          0.747758150100708,
          0.5154597759246826
        ],
        [
          0.06791140884160995,
          -0.08149728924036026,
          0.2549726963043213,
          -0.25986239314079285,
          -0.07419663667678833,
          0.45898154377937317,
          1.7614681720733643
        ],
        [
          0.16808737814426422,
          -0.22225657105445862,
          0.17013989388942719,
          -0.12063684314489365,
          0.42325296998023987,
          -0.1547853946685791,
          -0.34220731258392334
        ],
        [
          -0.28702378273010254,
          0.1130829006433487,
          0.19157855212688446,
          -0.053457602858543396,
          -0.27991095185279846,
          0.23712317645549774,
          1.7607535123825073
        ],
        [
          0.4906943142414093,
          0.3874901831150055,
          0.4979791045188904,
          0.39895185828208923,
          0.11174698173999786,
          0.6376176476478577,
          0.4196575880050659
        ],
        [
          -0.1309431940317154,
          0.44961652159690857,
          -0.09181048721075058,
          0.3815421462059021,
          0.2765669524669647,
          0.057029515504837036,
          1.5037989616394043
        ],
        [
          0.21239149570465088,
          0.5557504296302795,
          0.4975723326206207,
          0.427688330411911,
          0.1251145452260971,
          0.4772985279560089,
          -0.1525789499282837
        ],
        [
          0.5243701934814453,
          0.3004174530506134,
          -0.27242204546928406,
          0.556521475315094,
          -0.04736596345901489,
          0.28327488899230957,
          -0.2789810597896576
        ],
        [
          0.35621923208236694,
          0.6247954368591309,
          -0.0915093868970871,
          0.34010598063468933,
          -0.3663158118724823,
          0.5733135938644409,
          -0.1659809648990631
        ],
        [
          0.18301649391651154,
          0.24426661431789398,
          -0.3175934851169586,
          0.24677294492721558,
          -0.22155524790287018,
          0.48755335807800293,
          -0.25130516290664673
        ],
        [
          0.03896784782409668,
          -0.27536433935165405,
          -0.2969161570072174,
          0.060082703828811646,
          -0.3738536238670349,
          0.21502891182899475,
          -0.3307502567768097
        ],
        [
          0.22787238657474518,
          0.6827489137649536,
          0.4974042475223541,
          0.47618767619132996,
          0.06464214622974396,
          0.5936022996902466,
          -0.02056845650076866
        ],
        [
          0.5767173767089844,
          0.7562201619148254,
          -0.10070374608039856,
          0.1965637058019638,
          0.39009547233581543,
          0.5910773277282715,
          0.4575830101966858
        ],
        [
          0.560265302658081,
          0.1384200155735016,
          0.16159944236278534,
          0.2729760706424713,
          0.16630791127681732,
          0.25082939863204956,
          -0.2665822207927704
        ],
        [
          0.07055944204330444,
          0.6498299241065979,
          0.3554288148880005,
          0.3472941517829895,
          0.06589348614215851,
          0.681817889213562,
          0.054006993770599365
        ],
        [
          0.483059287071228,
          0.3048768937587738,
          0.1135614737868309,
          0.6748121380805969,
          0.27401813864707947,
          0.3185829520225525,
          0.5561557412147522
        ],
        [
          0.5796253681182861,
          0.2968353033065796,
          -0.12359906733036041,
          0.31873831152915955,
          0.3302711248397827,
          0.20653806626796722,
          -0.4753267765045166
        ],
        [
          0.030398624017834663,
          0.7982288002967834,
          0.4929456114768982,
          0.08229444175958633,
          0.4467039108276367,
          0.282023161649704,
          0.5491896271705627
        ],
        [
          0.6671404838562012,
          -0.004041869658976793,
          0.3703145682811737,
          0.2509984076023102,
          0.012281792238354683,
          0.04623723402619362,
          0.7065792083740234
        ],
        [
          0.4330883324146271,
          0.77678382396698,
          0.4936845004558563,
          -0.06327703595161438,
          0.28731024265289307,
          0.527101457118988,
          -0.036088116466999054
        ],
        [
          -0.19478604197502136,
          -0.2239505499601364,
          0.13005709648132324,
          -0.18127290904521942,
          -0.23502224683761597,
          -0.2799125909805298,
          -0.07744801789522171
        ],
        [
          0.14615197479724884,
          0.7182854413986206,
          0.12773410975933075,
          0.23184996843338013,
          -0.010976613499224186,
          0.43081215023994446,
          0.6326119303703308
        ],
        [
          0.20986215770244598,
          0.7191559076309204,
          0.4361273944377899,
          0.5205365419387817,
          0.14387129247188568,
          0.2527560889720917,
          0.3904045522212982
        ],
        [
          0.27727147936820984,
          0.5453141331672668,
          0.4553113877773285,
          0.03708333149552345,
          -0.3382166028022766,
          0.6447047591209412,
          -0.4056723117828369
        ],
        [
          0.0008034033817239106,
          0.6000459790229797,
          0.32272768020629883,
          0.5243936777114868,
          0.3403042256832123,
          0.34076443314552307,
          -0.317630797624588
        ],
        [
          -0.11896730959415436,
          0.1273394376039505,
          0.26328492164611816,
          0.1661752462387085,
          0.501338005065918,
          -0.114255890250206,
          -0.4897635579109192
        ],
        [
          -0.3551299273967743,
          0.056702081114053726,
          -0.4990486204624176,
          -0.18038155138492584,
          0.5606432557106018,
          -0.3000878393650055,
          0.5185523629188538
        ],
        [
          -0.14419348537921906,
          0.5273739695549011,
          -0.43901410698890686,
          0.4606791138648987,
          0.03243838623166084,
          0.0560208261013031,
          0.5447308421134949
        ]
      ],
      "biases": [
        0.09816955775022507,
        0.2701757550239563,
        0.6145254373550415,
        0.2050303816795349,
        0.38844481110572815,
        -0.19664226472377777,
        0.7941963076591492,
        0.06999503076076508,
        -0.32336631417274475,
        0.4732663333415985,
        0.42583751678466797,
        -0.044809490442276,
        -0.2231801599264145,
        0.2606535851955414,
        -0.3742605149745941,
        0.5650478005409241,
        0.615138053894043,
        0.289188951253891,
        0.3716140687465668,
        -0.382568359375,
        -0.1368919312953949,
        0.6296906471252441,
        0.5666359066963196,
        0.7535580992698669,
        0.24260687828063965,
        0.16531391441822052,
        0.479349285364151,
        0.1302686631679535,
        0.18374764919281006,
        0.5619788765907288,
        0.6539381146430969,
        -0.010523999109864235,
        0.08846541494131088,
        0.5297023057937622,
        0.4829159677028656,
        -0.1810539811849594,
        0.32730090618133545,
        -0.21755154430866241,
        -0.2474195659160614,
        0.10521841794252396,
        0.7089604139328003,
        0.09491664171218872,
        0.47844868898391724,
        0.21057161688804626,
        0.2527618110179901,
        0.6322062015533447,
        -0.11978569626808167,
        0.15201057493686676,
        0.5398852229118347,
        0.49178290367126465,
        0.7061101794242859,
        0.32475751638412476,
        0.24328787624835968,
        0.7324874997138977,
        0.4932393431663513,
        0.7557274103164673,
        0.33535289764404297,
        0.29054877161979675,
        0.17942045629024506,
        0.6792059540748596,
        0.40937456488609314,
        0.09203460812568665,
        -0.34612542390823364,
        0.6897470355033875
      ]
    },
    {
      "name": "1",
      "kind": "ReLU"
    },
    {
      "name": "2",
      "kind": "Linear",
      "inputSize": 64,
      "outputSize": 64,
      "hasBiases": true,
      "weights": [
        [
          0.05955533683300018,
          -0.10735374689102173,
          -0.04218277335166931,
          -0.08715662360191345,
          0.08389060199260712,
          0.07186324894428253,
          -0.036164119839668274,
          0.11670370399951935,
          -0.02211250364780426,
          -0.10633915662765503,
          -0.10513050854206085,
          -0.12341278791427612,
          -0.013542994856834412,
          -0.11564300954341888,
          0.06464976072311401,
          -0.11501109600067139,
          -0.018292874097824097,
          0.11316217482089996,
          0.10952416062355042,
          0.06280499696731567,
          0.11155614256858826,
          -0.019364550709724426,
          0.04628355801105499,
          -0.11451627314090729,
          -0.07826505601406097,
          0.007524624466896057,
          0.12360885739326477,
          0.00010706484317779541,
          -0.0973796546459198,
          0.1205354630947113,
          0.0807468444108963,
          -0.07410275936126709,
          -0.1042485237121582,
          0.030656784772872925,
          -0.06407006084918976,
          -0.05393688380718231,
          0.08296024799346924,
          -0.03813841938972473,
          -0.07622663676738739,
          0.03544774651527405,
          -0.08403842151165009,
          -0.12331214547157288,
          -0.07119263708591461,
          -0.06700704991817474,
          0.08411082625389099,
          -0.0114554762840271,
          -0.10131274163722992,
          0.06996327638626099,
          -0.04088498651981354,
          -0.021480664610862732,
          0.1249491423368454,
          0.07130604982376099,
          0.01657208800315857,
          -0.012031465768814087,
          0.07909469306468964,
          -0.12420417368412018,
          -0.045519158244132996,
          -0.05303838849067688,
          0.013499975204467773,
          -0.10540352761745453,
          -0.05454115569591522,
          -0.05703079700469971,
          0.08685673773288727,
          -0.0955963134765625
        ],
        [
          0.19616106152534485,
          0.25162187218666077,
          0.43056434392929077,
          0.26439371705055237,
          0.28341493010520935,
          -0.061283037066459656,
          0.3862772583961487,
          0.6380034685134888,
          0.0026699176523834467,
          0.28933092951774597,
          0.18027494847774506,
          0.1888122707605362,
          0.07158554345369339,
          0.2979949712753296,
          -0.009106606245040894,
          0.3073129653930664,
          0.26440680027008057,
          0.16236257553100586,
          0.3196907937526703,
          0.048997752368450165,
          -0.11630323529243469,
          0.42558369040489197,
          0.4279656708240509,
          0.43131178617477417,
          0.5858796238899231,
          0.38432952761650085,
          0.29622167348861694,
          0.4806560277938843,
          0.1350603550672531,
          0.5027014017105103,
          -0.5232319235801697,
          0.48383083939552307,
          0.2786524295806885,
          0.47270825505256653,
          0.33171364665031433,
          -0.018213078379631042,
          0.35153642296791077,
          0.2734760046005249,
          0.20608490705490112,
          0.18107269704341888,
          0.3397417664527893,
          0.6054479479789734,
          0.26598936319351196,
          0.289421945810318,
          0.4480917751789093,
          0.4541175067424774,
          -0.054112374782562256,
          0.4017956554889679,
          0.42325708270072937,
          0.24158728122711182,
          0.2337580770254135,
          0.3000960052013397,
          0.2922969162464142,
          0.3260204792022705,
          0.46755436062812805,
          0.33129164576530457,
          -0.00035075010964646935,
          0.5882012844085693,
          0.48590797185897827,
          0.3341315984725952,
          0.36386552453041077,
          0.2682371735572815,
          -0.5455060601234436,
          0.5978609919548035
        ],
        [
          0.4260992407798767,
          0.17048700153827667,
          0.02357320673763752,
          -0.14127975702285767,
          0.43983256816864014,
          -0.04406212270259857,
          -0.06368175148963928,
          0.5421350002288818,
          -0.12997180223464966,
          0.3141546845436096,
          0.2724407911300659,
          0.1326773464679718,
          -0.0927148312330246,
          0.5266814231872559,
          0.04713965952396393,
          0.1330878883600235,
          0.3529515862464905,
          0.23016296327114105,
          0.2117869257926941,
          0.12614385783672333,
          -0.10060864686965942,
          0.3421839475631714,
          0.26138731837272644,
          0.27528151869773865,
          0.448525995016098,
          0.3291871249675751,
          0.14210821688175201,
          0.13218703866004944,
          0.38949158787727356,
          0.3355252742767334,
          0.5300000905990601,
          -0.2702510952949524,
          0.14969250559806824,
          0.11948557198047638,
          0.34256139397621155,
          0.02545313537120819,
          0.24269601702690125,
          -0.7916868925094604,
          0.18672886490821838,
          -0.653479278087616,
          0.28315305709838867,
          -0.1335838884115219,
          0.3624171018600464,
          0.6206132173538208,
          0.3206150233745575,
          0.45984551310539246,
          -0.044691890478134155,
          0.25419431924819946,
          0.1667289137840271,
          0.2613756060600281,
          0.15938107669353485,
          0.21410827338695526,
          0.4344494938850403,
          0.02040547877550125,
          0.10728577524423599,
          0.20381103456020355,
          0.06600143015384674,
          -0.0145979393273592,
          0.21861417591571808,
          0.4377383887767792,
          0.42878082394599915,
          0.08622454106807709,
          -0.8919925093650818,
          0.36812639236450195
        ],
        [
          0.26032257080078125,
          0.2977846562862396,
          0.21426640450954437,
          -0.06366356462240219,
          0.2585635483264923,
          0.01663529872894287,
          0.20373544096946716,
          0.45877790451049805,
          0.0674976259469986,
          0.2961927652359009,
          0.11144112795591354,
          0.17107068002223969,
          0.01182757131755352,
          0.3781280815601349,
          0.07976813614368439,
          0.18401949107646942,
          0.31733497977256775,
          0.20734484493732452,
          0.2585914731025696,
          0.01997341401875019,
          0.06675317883491516,
          0.25353601574897766,
          0.3345975875854492,
          0.30394354462623596,
          0.38160446286201477,
          0.233293816447258,
          0.30175185203552246,
          0.10858460515737534,
          0.3034168779850006,
          0.3002016544342041,
          0.2030692845582962,
          0.00014286070654634386,
          0.1803574562072754,
          0.1424310803413391,
          0.4118558168411255,
          0.013534322381019592,
          0.15806640684604645,
          -0.3912912607192993,
          -0.2065742462873459,
          -0.3892207741737366,
          0.12727977335453033,
          0.2890869677066803,
          0.36820313334465027,
          0.3501794636249542,
          0.28088659048080444,
          0.3148549795150757,
          0.0939018577337265,
          0.15818144381046295,
          0.27380868792533875,
          0.33057901263237,
          0.15122650563716888,
          0.24868321418762207,
          0.4460068941116333,
          0.23603031039237976,
          0.16561450064182281,
          0.25972145795822144,
          0.0239297766238451,
          0.1196516826748848,
          0.203812375664711,
          0.14720386266708374,
          0.28451892733573914,
          0.09312807023525238,
          -0.7115625739097595,
          0.39477986097335815
        ],
        [
          0.2659032940864563,
          0.3267258405685425,
          0.18424831330776215,
          0.23494888842105865,
          0.30088353157043457,
          -0.06653520464897156,
          0.2917362153530121,
          0.454568088054657,
          -0.12763069570064545,
          0.27287864685058594,
          0.303447961807251,
          0.12524119019508362,
          0.06157345324754715,
          0.25469478964805603,
          0.02902093529701233,
          0.39909905195236206,
          0.2905445992946625,
          0.3111214339733124,
          0.3461475670337677,
          0.030637068673968315,
          -0.1185699999332428,
          0.375623881816864,
          0.2998749017715454,
          0.3213571012020111,
          0.20138011872768402,
          0.2826673090457916,
          0.35486897826194763,
          0.34983694553375244,
          0.38477420806884766,
          0.3637840449810028,
          -0.3609328866004944,
          0.17340010404586792,
          0.4310683012008667,
          0.34924232959747314,
          0.1712900698184967,
          -0.11017733812332153,
          0.15236233174800873,
          -0.09374136477708817,
          -0.05827100947499275,
          -0.09499417990446091,
          0.3108217418193817,
          0.5990175604820251,
          0.15063591301441193,
          0.26815569400787354,
          0.35170555114746094,
          0.2270534485578537,
          0.06171911954879761,
          0.17563243210315704,
          0.30947670340538025,
          0.1829851120710373,
          0.27537497878074646,
          0.36576905846595764,
          0.31318628787994385,
          0.19806163012981415,
          0.1887667030096054,
          0.3478017747402191,
          0.10840320587158203,
          0.5268797278404236,
          0.3083258271217346,
          0.2010021209716797,
          0.3441283702850342,
          0.14358371496200562,
          -0.7905287742614746,
          0.5424392223358154
        ],
        [
          0.3983103334903717,
          0.20108497142791748,
          0.1516016721725464,
          -0.41856130957603455,
          0.459566205739975,
          -0.10651591420173645,
          0.011365249752998352,
          0.5904620289802551,
          -0.05641864240169525,
          0.17800278961658478,
          0.3013516068458557,
          0.32074832916259766,
          -0.016274292021989822,
          0.2871556580066681,
          -0.03218923509120941,
          0.1751929372549057,
          0.4036913216114044,
          0.3441268801689148,
          0.16310001909732819,
          0.09727611392736435,
          -0.006164968013763428,
          0.2523193061351776,
          0.19098037481307983,
          0.11232814937829971,
          0.5809151530265808,
          0.33344632387161255,
          0.09133195132017136,
          0.07163193076848984,
          0.6674944162368774,
          0.21963268518447876,
          0.9323274493217468,
          -0.4132152795791626,
          0.1999814510345459,
          -0.07268630713224411,
          0.4715321362018585,
          0.08456778526306152,
          0.03647812828421593,
          -0.8244144916534424,
          0.11907332390546799,
          -0.90987628698349,
          0.13244666159152985,
          -0.11759620159864426,
          0.22977933287620544,
          0.5675953030586243,
          0.36985087394714355,
          0.3931375741958618,
          -0.0813397616147995,
          0.3700481057167053,
          -0.03344028443098068,
          0.5004855990409851,
          0.26732197403907776,
          0.20152798295021057,
          0.453383207321167,
          -0.0015571421245113015,
          0.08466091752052307,
          0.24045607447624207,
          0.11332106590270996,
          -0.01192281860858202,
          0.18402191996574402,
          0.31473904848098755,
          0.3184102177619934,
          0.21388202905654907,
          -1.1893665790557861,
          0.4572393596172333
        ],
        [
          0.4515461325645447,
          0.2944614887237549,
          0.14822715520858765,
          -0.00690363347530365,
          0.4068045914173126,
          -0.031051769852638245,
          0.38196808099746704,
          0.4654390513896942,
          0.015543827787041664,
          0.29283058643341064,
          0.198846697807312,
          0.40418848395347595,
          0.11207692325115204,
          0.401577889919281,
          -0.11835016310214996,
          0.45284557342529297,
          0.2696026563644409,
          0.40415921807289124,
          0.33929991722106934,
          0.058440469205379486,
          0.05381856858730316,
          0.3748861849308014,
          0.4412434995174408,
          0.29012930393218994,
          0.5694137215614319,
          0.3106796145439148,
          0.3569295406341553,
          0.43420645594596863,
          0.5466345548629761,
          0.4501567780971527,
          0.032716523855924606,
          0.18895162642002106,
          0.3244240880012512,
          0.34116408228874207,
          0.6148837804794312,
          -0.005345776677131653,
          0.42627421021461487,
          -0.20766209065914154,
          0.06308861821889877,
          -0.33564555644989014,
          0.34983620047569275,
          0.29436805844306946,
          0.5015535354614258,
          0.5188857316970825,
          0.3371254801750183,
          0.47528791427612305,
          -0.11493167281150818,
          0.4090597629547119,
          0.4396020174026489,
          0.32440686225891113,
          0.46234622597694397,
          0.33792561292648315,
          0.5387740135192871,
          0.31338807940483093,
          0.3118396997451782,
          0.2857413589954376,
          -0.11172781884670258,
          0.2802944481372833,
          0.3785199522972107,
          0.4052116274833679,
          0.33681556582450867,
          0.3603784739971161,
          -0.9287305474281311,
          0.499837726354599
        ],
        [
          0.05693455785512924,
          0.1455187201499939,
          0.2339155524969101,
          0.7882510423660278,
          -0.008584885857999325,
          -0.04869796335697174,
          0.17688791453838348,
          -0.026754627004265785,
          0.028045466169714928,
          0.08979447185993195,
          -0.0388258658349514,
          0.14823032915592194,
          -0.001112357946112752,
          -0.18653017282485962,
          0.0610533207654953,
          0.35041677951812744,
          -0.011466503143310547,
          0.03633451461791992,
          0.1524806022644043,
          -0.11195249855518341,
          0.04155007004737854,
          0.18247313797473907,
          -0.01382979191839695,
          0.07374102622270584,
          0.19242781400680542,
          0.0077833691611886024,
          0.19280657172203064,
          0.28554871678352356,
          -0.4986080527305603,
          0.19949214160442352,
          -0.47246554493904114,
          0.9338792562484741,
          0.11190620809793472,
          0.20387740433216095,
          0.0063741267658770084,
          0.12276007235050201,
          0.20274344086647034,
          0.9276266098022461,
          -0.1245664581656456,
          1.0200291872024536,
          0.30542320013046265,
          0.847710907459259,
          0.030977491289377213,
          -0.08045637607574463,
          0.12431969493627548,
          0.027120333164930344,
          0.06693275272846222,
          -0.009287681430578232,
          0.2732855975627899,
          -0.09996314346790314,
          0.21068766713142395,
          0.3602235019207001,
          -0.2189868688583374,
          0.32714134454727173,
          0.3784644603729248,
          0.05608198419213295,
          -0.048497140407562256,
          0.3195365071296692,
          0.16263824701309204,
          -0.08410673588514328,
          -0.08887636661529541,
          0.12377487123012543,
          0.20137304067611694,
          0.16560347378253937
        ],
        [
          0.012070226483047009,
          -0.10389251261949539,
          -0.047047942876815796,
          -0.004507873672991991,
          0.07369650900363922,
          -0.0301436185836792,
          0.08863873779773712,
          -0.12245208770036697,
          -0.07325425744056702,
          -0.004438167437911034,
          0.09653329849243164,
          0.006840035319328308,
          0.0701276957988739,
          0.0875888541340828,
          0.08402609825134277,
          -0.07930317521095276,
          0.0014954288490116596,
          -0.015225591138005257,
          -0.028211185708642006,
          -0.09005889296531677,
          -0.09483955800533295,
          -0.11240746825933456,
          -0.01661737821996212,
          -0.08087504655122757,
          0.08318786323070526,
          -0.0631808191537857,
          -0.02177719958126545,
          -0.035006873309612274,
          -0.0708916187286377,
          -0.11489439755678177,
          -0.06215142831206322,
          0.054401762783527374,
          0.032462503761053085,
          -0.022992361336946487,
          0.06364227086305618,
          -0.1098557859659195,
          -0.049985140562057495,
          -0.09295766055583954,
          -0.0071816942654550076,
          0.04044506326317787,
          0.03882971778512001,
          0.0955316349864006,
          -0.021307405084371567,
          0.06530111283063889,
          0.07760360091924667,
          -0.07569251954555511,
          -0.07069103419780731,
          -0.018962262198328972,
          -0.04282885044813156,
          0.015073725953698158,
          -0.022200314328074455,
          0.0210002139210701,
          -0.06357567757368088,
          0.03203103318810463,
          -0.0068606180138885975,
          -0.1397044062614441,
          -0.08152034878730774,
          0.009593219496309757,
          0.010008761659264565,
          0.10300958156585693,
          0.09499300271272659,
          0.05029072239995003,
          0.02840089611709118,
          0.09450402855873108
        ],
        [
          0.0025802189484238625,
          -0.09983903914690018,
          -0.12293031811714172,
          -0.09552261233329773,
          -0.054175592958927155,
          0.08838199079036713,
          -0.06768505275249481,
          -0.021412521600723267,
          -0.020000336691737175,
          0.0410999059677124,
          0.07089746743440628,
          0.15730014443397522,
          -0.05392146110534668,
          0.033387452363967896,
          0.12256965041160583,
          0.06584040075540543,
          0.05411332845687866,
          0.05828975886106491,
          -0.08482588827610016,
          0.06770914047956467,
          0.02936740219593048,
          0.035147327929735184,
          -0.13092432916164398,
          0.034512367099523544,
          -0.11502498388290405,
          0.017974818125367165,
          0.002712986432015896,
          -0.14200760424137115,
          0.047149937599897385,
          0.023197678849101067,
          -0.0358237698674202,
          -0.05085383355617523,
          0.06141732260584831,
          -0.03231386840343475,
          0.17244522273540497,
          0.08861894905567169,
          0.013308737426996231,
          -0.0357530415058136,
          -0.07893137633800507,
          -0.10387527942657471,
          0.0752023234963417,
          -0.09076937288045883,
          0.006525170058012009,
          0.016418971121311188,
          -0.041984498500823975,
          -0.052511703222990036,
          -0.08452770113945007,
          0.00788472406566143,
          -0.01714085415005684,
          -0.05594594031572342,
          -0.16586704552173615,
          -0.10189121961593628,
          0.05978093668818474,
          0.0635228082537651,
          -0.11051677912473679,
          -0.11791084706783295,
          -0.06245061010122299,
          0.07479897886514664,
          -0.016216658055782318,
          -0.16039858758449554,
          0.025736747309565544,
          0.15681244432926178,
          -0.04227341338992119,
          0.10211381316184998
        ],
        [
          0.05266943946480751,
          0.3710775077342987,
          0.23152074217796326,
          0.6278914213180542,
          0.21731843054294586,
          0.10592181980609894,
          0.508761465549469,
          0.5490127205848694,
          -0.04170507565140724,
          0.14150841534137726,
          0.07158214598894119,
          0.20531462132930756,
          -0.1097971722483635,
          0.18522077798843384,
          0.06084613502025604,
          0.4488396644592285,
          0.3844048082828522,
          0.06615159660577774,
          0.2719338536262512,
          0.049505311995744705,
          0.012706786394119263,
          0.25042492151260376,
          0.2608058750629425,
          0.3949783742427826,
          0.19759364426136017,
          0.24195000529289246,
          0.4254773259162903,
          0.2615969777107239,
          0.018603863194584846,
          0.20898014307022095,
          -0.7179011106491089,
          0.8478356599807739,
          0.3030450940132141,
          0.5231068134307861,
          0.23377549648284912,
          0.009950637817382812,
          0.2638053894042969,
          0.519546627998352,
          -0.08996836841106415,
          0.4523536264896393,
          0.39990663528442383,
          1.0818202495574951,
          0.3574216663837433,
          0.14061765372753143,
          0.13019207119941711,
          0.3076881170272827,
          -0.07527263462543488,
          0.3581542372703552,
          0.2572212219238281,
          0.25644347071647644,
          0.1694025844335556,
          0.18497854471206665,
          0.2523450255393982,
          0.22705185413360596,
          0.11934130638837814,
          0.17070883512496948,
          0.045514509081840515,
          0.557826817035675,
          0.2976052463054657,
          0.10651129484176636,
          0.19157253205776215,
          0.19889439642429352,
          -0.19551251828670502,
          0.5633592009544373
        ],
        [
          0.1419287472963333,
          0.28052204847335815,
          0.3088330626487732,
          0.39002180099487305,
          0.43357229232788086,
          -0.07415516674518585,
          0.42535680532455444,
          0.334606796503067,
          0.06747034937143326,
          0.1448855996131897,
          0.2884194850921631,
          0.17928266525268555,
          -0.028318753466010094,
          0.22324442863464355,
          0.07787592709064484,
          0.32392147183418274,
          0.2960411310195923,
          0.2191055417060852,
          0.22761783003807068,
          -0.04063158482313156,
          0.08518142998218536,
          0.338572233915329,
          0.14212262630462646,
          0.3100545108318329,
          0.3150520324707031,
          0.2690235674381256,
          0.3416329026222229,
          0.2966890037059784,
          0.2345651388168335,
          0.408765584230423,
          -0.5974287390708923,
          0.39147478342056274,
          0.2505497336387634,
          0.36748409271240234,
          0.31724560260772705,
          0.10965503752231598,
          0.18135684728622437,
          0.23084406554698944,
          -0.18120843172073364,
          0.31964394450187683,
          0.30893492698669434,
          0.7223747372627258,
          0.34389129281044006,
          0.08032039552927017,
          0.28583693504333496,
          0.4111815392971039,
          -0.08942742645740509,
          0.3877347409725189,
          0.4238046109676361,
          0.09840037673711777,
          0.41572797298431396,
          0.23787547647953033,
          0.20103813707828522,
          0.31396836042404175,
          0.21771447360515594,
          0.2108873873949051,
          0.0727919414639473,
          0.4037378430366516,
          0.33002835512161255,
          0.22606651484966278,
          0.12466558068990707,
          0.24174286425113678,
          -0.6514909863471985,
          0.4031779170036316
        ],
        [
          0.14171569049358368,
          0.19740983843803406,
          0.21683268249034882,
          0.6555200815200806,
          0.22404412925243378,
          -0.0582713782787323,
          0.43858763575553894,
          0.4888167381286621,
          0.04635148122906685,
          0.35988807678222656,
          0.2567262649536133,
          0.1595325917005539,
          0.033114757388830185,
          0.09701049327850342,
          -0.04226429760456085,
          0.32944294810295105,
          0.41543111205101013,
          0.115338534116745,
          0.27441397309303284,
          -0.05107927322387695,
          -0.021312445402145386,
          0.27204346656799316,
          0.0962703749537468,
          0.2659233808517456,
          0.15079517662525177,
          0.06880106776952744,
          0.41098061203956604,
          0.24267823994159698,
          0.14868348836898804,
          0.4175168573856354,
          -0.5116141438484192,
          0.6062581539154053,
          0.42112648487091064,
          0.32410743832588196,
          0.25143519043922424,
          0.012250393629074097,
          0.26847314834594727,
          0.5578739643096924,
          0.013892493210732937,
          0.5154306292533875,
          0.36207202076911926,
          0.9919397234916687,
          0.16921460628509521,
          0.24200741946697235,
          0.2792058289051056,
          0.1514371633529663,
          -0.040025338530540466,
          0.3679182231426239,
          0.35958391427993774,
          0.23573897778987885,
          0.15031003952026367,
          0.2933744788169861,
          0.16462315618991852,
          0.2526087462902069,
          0.43161672353744507,
          0.2212047278881073,
          0.09055469185113907,
          0.540393590927124,
          0.41561850905418396,
          0.10224033892154694,
          0.21074281632900238,
          0.08422864228487015,
          -0.6635733246803284,
          0.35539117455482483
        ],
        [
          -0.005131319165229797,
          0.07363501191139221,
          -0.0813097357749939,
          -0.012766152620315552,
          0.021366626024246216,
          -0.0093163400888443,
          -0.08746086061000824,
          0.11558741331100464,
          0.1125333309173584,
          -0.11988963186740875,
          0.016037210822105408,
          -0.05881372094154358,
          0.07487954199314117,
          0.011736094951629639,
          -0.12401564419269562,
          0.03342662751674652,
          0.03439696133136749,
          -0.07483066618442535,
          0.03251302242279053,
          -0.04572775959968567,
          0.08249269425868988,
          0.04136325418949127,
          0.00818490982055664,
          -0.09265404939651489,
          0.04660101234912872,
          0.0201522558927536,
          0.026699617505073547,
          -0.06674849987030029,
          0.05272722244262695,
          -0.0036255568265914917,
          0.08630448579788208,
          -0.11744798719882965,
          -0.1048072874546051,
          0.09041120111942291,
          -0.008376941084861755,
          -0.06389455497264862,
          -0.05409272015094757,
          -0.021257445216178894,
          -0.04949486255645752,
          0.11910951137542725,
          -0.08397889137268066,
          -0.09865924715995789,
          0.047674208879470825,
          -0.03867408633232117,
          -0.042518824338912964,
          -0.11921858787536621,
          -0.09712930023670197,
          0.08522415161132812,
          0.0716705322265625,
          0.12182316184043884,
          -0.072151780128479,
          0.08831048011779785,
          -0.07706712186336517,
          -0.04997262358665466,
          0.08338932693004608,
          0.006848394870758057,
          0.009965717792510986,
          0.10286863148212433,
          -0.07501310110092163,
          0.07798171043395996,
          -0.0861985832452774,
          0.05552209913730621,
          0.04915952682495117,
          -0.08381804823875427
        ],
        [
          -0.015940451994538307,
          -0.021573707461357117,
          0.42254385352134705,
          1.3742402791976929,
          0.09914039075374603,
          -0.03405202925205231,
          0.39794448018074036,
          0.19205132126808167,
          -0.0420549139380455,
          0.1519373655319214,
          -0.05245748534798622,
          0.12596015632152557,
          -0.0326511487364769,
          -0.6321108341217041,
          -0.03766918182373047,
          0.20338034629821777,
          -0.19456562399864197,
          -0.17406783998012543,
          -0.0693405270576477,
          0.03453798592090607,
          0.08882758021354675,
          0.03742381930351257,
          -0.06535187363624573,
          0.12125178426504135,
          0.2211359441280365,
          0.05532854050397873,
          0.4650788903236389,
          0.0846366360783577,
          -0.5544372797012329,
          0.19085830450057983,
          -1.2043277025222778,
          1.337735652923584,
          0.07874824106693268,
          0.3134036362171173,
          -0.1207522377371788,
          -0.08312951028347015,
          0.3034248352050781,
          1.950390338897705,
          0.0265683401376009,
          1.9704679250717163,
          0.11717908084392548,
          1.23312509059906,
          -0.002397505333647132,
          -0.38713884353637695,
          -0.21905377507209778,
          -0.29921555519104004,
          -0.08262357115745544,
          0.007536910939961672,
          0.2973509430885315,
          -0.0726732686161995,
          0.12229204922914505,
          0.3864378333091736,
          -0.36157938838005066,
          0.30444619059562683,
          0.3130693733692169,
          0.14126619696617126,
          0.057385992258787155,
          0.2499566376209259,
          0.2913223206996918,
          -0.22305257618427277,
          -0.05979868397116661,
          0.26505646109580994,
          0.8042910695075989,
          0.5905894041061401
        ],
        [
          -0.06466461718082428,
          -0.11911991238594055,
          -0.06289762258529663,
          0.009909987449645996,
          0.07732395827770233,
          -0.0625317245721817,
          -0.10804042220115662,
          0.0269070565700531,
          0.019315853714942932,
          -0.10022354125976562,
          -0.03991095721721649,
          -0.04783594608306885,
          0.00923493504524231,
          0.05202856659889221,
          -0.03920622169971466,
          0.0011261552572250366,
          0.11004659533500671,
          -0.04646770656108856,
          -0.06608176231384277,
          0.023916393518447876,
          0.0738753080368042,
          -0.09780849516391754,
          -0.019709840416908264,
          -0.009337946772575378,
          0.11130039393901825,
          0.033356621861457825,
          -0.09827221930027008,
          0.08925795555114746,
          0.06030002236366272,
          -0.12419772148132324,
          0.10022804141044617,
          -0.02619384229183197,
          0.08060021698474884,
          0.07504172623157501,
          0.12205938994884491,
          -0.11537140607833862,
          -0.09311293065547943,
          -0.02326694130897522,
          0.10224273800849915,
          0.08673509955406189,
          -0.07442821562290192,
          -0.07266898453235626,
          -0.003401920199394226,
          0.03603343665599823,
          0.036913126707077026,
          -0.014635145664215088,
          0.08007985353469849,
          -0.05984087288379669,
          0.04454560577869415,
          -0.07801023125648499,
          -0.06260079145431519,
          -0.0658448338508606,
          0.1203913688659668,
          -0.04106299579143524,
          0.025060296058654785,
          0.04715284705162048,
          -0.034305959939956665,
          0.013950526714324951,
          0.07176424562931061,
          0.10932706296443939,
          -0.006826490163803101,
          0.00896407663822174,
          0.021209537982940674,
          -0.11919315159320831
        ],
        [
          0.39868202805519104,
          0.25231051445007324,
          -0.17816667258739471,
          -0.8892958164215088,
          0.42528411746025085,
          0.09702706336975098,
          -0.05821072682738304,
          0.5155621767044067,
          0.17870023846626282,
          0.04662943631410599,
          0.37149178981781006,
          0.4149293601512909,
          0.03568362072110176,
          0.6417098641395569,
          -0.019702687859535217,
          -0.09843233227729797,
          0.3879064619541168,
          0.3112702965736389,
          0.3145619332790375,
          -0.05215756222605705,
          0.11586098372936249,
          0.1457958072423935,
          0.44423598051071167,
          0.07911667972803116,
          0.842860221862793,
          0.38932234048843384,
          0.006152894347906113,
          -0.10374078154563904,
          1.160768985748291,
          0.09300775080919266,
          1.168441891670227,
          -1.1215885877609253,
          0.193414568901062,
          -0.22265899181365967,
          0.6930522322654724,
          0.06477533280849457,
          0.027742139995098114,
          -1.661953091621399,
          -0.12186656147241592,
          -1.831908941268921,
          0.06154762580990791,
          -0.7793692350387573,
          0.27464255690574646,
          0.4920269548892975,
          0.5380538702011108,
          0.5650947093963623,
          -0.010699212551116943,
          0.3580362796783447,
          -0.08602625876665115,
          0.4381609559059143,
          0.26154935359954834,
          0.03949076682329178,
          0.7316398024559021,
          -0.021962232887744904,
          -0.20569320023059845,
          0.14908750355243683,
          -0.10372157394886017,
          -0.2110065072774887,
          0.23574192821979523,
          0.2607751488685608,
          0.5281005501747131,
          0.4960862994194031,
          -1.2248831987380981,
          0.1703285127878189
        ],
        [
          0.25725409388542175,
          0.24598880112171173,
          0.22796477377414703,
          0.3489648699760437,
          0.41474252939224243,
          0.10570213198661804,
          0.352080374956131,
          0.5140198469161987,
          0.11310562491416931,
          0.3565186560153961,
          0.3401039242744446,
          0.2268209606409073,
          -0.09933914989233017,
          0.24582965672016144,
          -0.10937853157520294,
          0.3148459494113922,
          0.42348480224609375,
          0.17206496000289917,
          0.28224697709083557,
          0.1195293664932251,
          0.0698058158159256,
          0.22621364891529083,
          0.3719121515750885,
          0.3050602376461029,
          0.4221113920211792,
          0.16261163353919983,
          0.18678662180900574,
          0.39134877920150757,
          0.20678000152111053,
          0.45640259981155396,
          -0.20737265050411224,
          0.43494486808776855,
          0.3425188660621643,
          0.3956105709075928,
          0.38405951857566833,
          -0.010996013879776001,
          0.34569770097732544,
          -0.05109403654932976,
          -0.19995787739753723,
          0.036933377385139465,
          0.17591121792793274,
          0.6583454608917236,
          0.22933778166770935,
          0.265505850315094,
          0.23478196561336517,
          0.3355543911457062,
          -0.0736844390630722,
          0.26865872740745544,
          0.28112706542015076,
          0.312462717294693,
          0.3678056001663208,
          0.18334880471229553,
          0.2583281099796295,
          0.3271932601928711,
          0.20009899139404297,
          0.19983531534671783,
          0.01642332784831524,
          0.520438551902771,
          0.45569831132888794,
          0.18507274985313416,
          0.18172889947891235,
          0.24095162749290466,
          -0.6199715733528137,
          0.5341541171073914
        ],
        [
          0.442712664604187,
          0.2947603464126587,
          0.209619402885437,
          0.35054686665534973,
          0.366698294878006,
          -0.1071295291185379,
          0.4283962547779083,
          0.5666146278381348,
          -0.017695020884275436,
          0.35458511114120483,
          0.2365230768918991,
          0.18077413737773895,
          0.010249380022287369,
          0.35267916321754456,
          -0.06213298439979553,
          0.3231115937232971,
          0.324773371219635,
          0.2709614038467407,
          0.28539782762527466,
          0.06669341027736664,
          -0.10486406087875366,
          0.24816325306892395,
          0.31763237714767456,
          0.38957756757736206,
          0.3349495530128479,
          0.2988493740558624,
          0.38584744930267334,
          0.32264506816864014,
          0.2949734628200531,
          0.3184223175048828,
          -0.22648102045059204,
          0.3394884467124939,
          0.22716450691223145,
          0.4080270230770111,
          0.3908941447734833,
          -0.043489307165145874,
          0.2515007555484772,
          -0.0802321657538414,
          -0.07013019919395447,
          0.04127359762787819,
          0.1844479888677597,
          0.6314787864685059,
          0.2915690839290619,
          0.1593281477689743,
          0.41082170605659485,
          0.3177953064441681,
          -0.03775143623352051,
          0.44575151801109314,
          0.20279841125011444,
          0.19029678404331207,
          0.20560936629772186,
          0.32499054074287415,
          0.3093149662017822,
          0.27531009912490845,
          0.36037716269493103,
          0.2701956033706665,
          -0.12704388797283173,
          0.4120570719242096,
          0.31468701362609863,
          0.22685237228870392,
          0.4343588948249817,
          0.33405664563179016,
          -0.7299506068229675,
          0.6495261788368225
        ],
        [
          0.2531309723854065,
          0.2871667444705963,
          0.1527811735868454,
          0.13863424956798553,
          0.4332081079483032,
          0.035997867584228516,
          0.40429091453552246,
          0.6107656955718994,
          0.07983077317476273,
          0.261168897151947,
          0.23630337417125702,
          0.14792059361934662,
          -0.04010869562625885,
          0.3368174135684967,
          -0.03867614269256592,
          0.22255071997642517,
          0.40090253949165344,
          0.2104244977235794,
          0.4579501748085022,
          -0.003870531916618347,
          -0.029983237385749817,
          0.33310189843177795,
          0.3807145655155182,
          0.18712688982486725,
          0.33824166655540466,
          0.17482544481754303,
          0.3775639832019806,
          0.47329315543174744,
          0.20821097493171692,
          0.33444535732269287,
          -0.2513290345668793,
          -0.008252112194895744,
          0.23890869319438934,
          0.3262157142162323,
          0.35139551758766174,
          0.1153729110956192,
          0.223653644323349,
          -0.06235482916235924,
          0.2110622376203537,
          0.1448579579591751,
          0.352103054523468,
          0.3478150963783264,
          0.21362876892089844,
          0.288801372051239,
          0.4272967576980591,
          0.4613449275493622,
          0.013275161385536194,
          0.35480996966362,
          0.3619813919067383,
          0.22997832298278809,
          0.3313952386379242,
          0.20874828100204468,
          0.15533100068569183,
          0.4431016147136688,
          0.2973802089691162,
          0.3545686900615692,
          -0.019279224798083305,
          0.34452706575393677,
          0.3825398087501526,
          0.3019392490386963,
          0.29010868072509766,
          0.08324529230594635,
          -0.7368690371513367,
          0.5270895957946777
        ],
        [
          0.40206533670425415,
          0.049170155078172684,
          0.020601686090230942,
          -0.8240020871162415,
          0.13646674156188965,
          -0.07304757833480835,
          -0.2558980882167816,
          0.10973845422267914,
          0.007980195805430412,
          0.13228845596313477,
          0.3026604652404785,
          0.29106077551841736,
          -0.012627163901925087,
          0.5200598239898682,
          0.04110085964202881,
          -0.07477942854166031,
          0.3106430172920227,
          0.5005044341087341,
          0.3208451569080353,
          -0.04443711042404175,
          0.03557148575782776,
          0.20828399062156677,
          0.38722801208496094,
          0.14040891826152802,
          0.8103550672531128,
          0.4796799421310425,
          -0.001791781629435718,
          0.030374839901924133,
          0.9322006702423096,
          0.006341691594570875,
          1.1993918418884277,
          -0.7933192849159241,
          0.12587402760982513,
          -0.17961469292640686,
          0.3941258490085602,
          -0.11823204159736633,
          0.03461529687047005,
          -1.3878321647644043,
          0.06411605328321457,
          -1.2143474817276,
          -0.057567887008190155,
          -1.0479763746261597,
          0.3883243501186371,
          0.500667154788971,
          0.3418845534324646,
          0.45572972297668457,
          -0.10442905128002167,
          0.2118932157754898,
          0.035778991878032684,
          0.3631345331668854,
          0.22224074602127075,
          0.0044323657639324665,
          0.575775682926178,
          0.06738133728504181,
          -0.272095263004303,
          0.12905478477478027,
          0.029972804710268974,
          -0.01879001595079899,
          -0.005196654703468084,
          0.3587884306907654,
          0.6263222098350525,
          0.42975589632987976,
          -0.2962866425514221,
          -0.009595475159585476
        ],
        [
          0.47172659635543823,
          0.339393675327301,
          0.2967275381088257,
          0.20641186833381653,
          0.5080371499061584,
          -0.0034641772508621216,
          0.3181305527687073,
          0.5226489305496216,
          0.03459635004401207,
          0.3229924142360687,
          0.1789260357618332,
          0.016617536544799805,
          0.11137796938419342,
          0.3811587989330292,
          -0.03558814525604248,
          0.26038116216659546,
          0.3753388524055481,
          0.17507481575012207,
          0.3721001148223877,
          -0.07582225650548935,
          0.05411258339881897,
          0.2737767994403839,
          0.24996300041675568,
          0.33719363808631897,
          0.3331809937953949,
          0.22455443441867828,
          0.2797483801841736,
          0.3344727158546448,
          0.2613897919654846,
          0.39217549562454224,
          -0.026494279503822327,
          0.3548535406589508,
          0.3587161600589752,
          0.2106253206729889,
          0.3028191328048706,
          -0.10444433987140656,
          0.18712793290615082,
          -0.10088520497083664,
          0.2375965714454651,
          0.2022826224565506,
          0.3207365572452545,
          0.22015516459941864,
          0.40150922536849976,
          0.3692360520362854,
          0.4462762176990509,
          0.34395134449005127,
          0.038232386112213135,
          0.38710832595825195,
          0.1800851672887802,
          0.3231302499771118,
          0.28896626830101013,
          0.3578743636608124,
          0.30900701880455017,
          0.2902832329273224,
          0.2081354409456253,
          0.30830085277557373,
          0.11644673347473145,
          0.3191412389278412,
          0.2801983952522278,
          0.3241157829761505,
          0.3103281557559967,
          0.10501045733690262,
          -0.6937735080718994,
          0.6117177605628967
        ],
        [
          0.3071143627166748,
          0.37811172008514404,
          0.07814642786979675,
          -0.08721715956926346,
          0.45239177346229553,
          0.12372791767120361,
          0.3358190953731537,
          0.6290042996406555,
          -0.14809826016426086,
          0.395651251077652,
          0.20536647737026215,
          0.04858687147498131,
          -0.06835317611694336,
          0.3989867866039276,
          -0.03537176549434662,
          0.19401267170906067,
          0.4339040219783783,
          0.3578346371650696,
          0.3830779194831848,
          0.06676959991455078,
          -0.1076640784740448,
          0.3486489951610565,
          0.28479841351509094,
          0.23730024695396423,
          0.4456155002117157,
          0.302862286567688,
          0.26744261384010315,
          0.24787645041942596,
          0.4345836937427521,
          0.35236039757728577,
          -0.03205592557787895,
          0.0983242392539978,
          0.36743849515914917,
          0.18856565654277802,
          0.23982015252113342,
          -0.040726080536842346,
          0.30000850558280945,
          -0.3465757966041565,
          0.19854889810085297,
          -0.11352807283401489,
          0.240108460187912,
          0.02982732467353344,
          0.40886592864990234,
          0.5204598903656006,
          0.3597037196159363,
          0.545460045337677,
          -0.06298516690731049,
          0.4185774028301239,
          0.3179778456687927,
          0.33557140827178955,
          0.30445507168769836,
          0.27347421646118164,
          0.31624507904052734,
          0.2388153225183487,
          0.15177422761917114,
          0.36380091309547424,
          -0.020821165293455124,
          0.4310215413570404,
          0.2944221794605255,
          0.31257933378219604,
          0.2420644909143448,
          0.08036806434392929,
          -0.5839681029319763,
          0.6675954461097717
        ],
        [
          -0.08976586163043976,
          -0.0027950555086135864,
          -0.010408386588096619,
          -0.12173427641391754,
          -0.012897774577140808,
          -0.03729739785194397,
          -0.01580636203289032,
          0.024998709559440613,
          0.00906805694103241,
          -0.02046370506286621,
          -0.029483377933502197,
          -0.010231465101242065,
          -0.07374262809753418,
          -0.07632425427436829,
          0.040789052844047546,
          0.049366891384124756,
          0.08096688985824585,
          0.05151766538619995,
          -0.02745610475540161,
          0.040031686425209045,
          -0.0804402232170105,
          -0.0750809907913208,
          0.07103930413722992,
          -0.05014298856258392,
          0.11722664535045624,
          -0.069138303399086,
          0.022397920489311218,
          -0.10971452295780182,
          0.0402965247631073,
          0.11577752232551575,
          -0.11634759604930878,
          0.11874301731586456,
          -0.020130261778831482,
          -0.004480436444282532,
          -0.043735966086387634,
          -0.07589337229728699,
          -0.08241793513298035,
          0.07352298498153687,
          -0.00516819953918457,
          0.0740576833486557,
          -0.06365428864955902,
          0.05733001232147217,
          -0.10476629436016083,
          -0.05495359003543854,
          0.09450998902320862,
          -0.037606194615364075,
          0.09530170261859894,
          -0.11304730176925659,
          -0.05551253259181976,
          0.06284323334693909,
          -0.027338460087776184,
          -0.014712661504745483,
          -0.10683198273181915,
          0.0370091050863266,
          -0.04179336130619049,
          -0.08463788032531738,
          -0.0869794636964798,
          -0.03340514004230499,
          0.09090670943260193,
          0.022259995341300964,
          -0.03425318002700806,
          0.019054800271987915,
          -0.03805460035800934,
          -0.12467682361602783
        ],
        [
          0.2876538932323456,
          0.31001704931259155,
          0.17664283514022827,
          0.24330838024616241,
          0.28978216648101807,
          -0.005478203296661377,
          0.374236524105072,
          0.5563194155693054,
          -0.04989652708172798,
          0.17320960760116577,
          0.21490983664989471,
          0.20208626985549927,
          0.08105767518281937,
          0.27427005767822266,
          0.07903878390789032,
          0.45816391706466675,
          0.33208411931991577,
          0.2781916856765747,
          0.39362236857414246,
          0.07226976752281189,
          0.051045238971710205,
          0.2083558589220047,
          0.21459129452705383,
          0.31314608454704285,
          0.2576935291290283,
          0.17772923409938812,
          0.4364004135131836,
          0.3469974994659424,
          0.05168600007891655,
          0.3335653245449066,
          -0.6237603425979614,
          0.5441828370094299,
          0.39545685052871704,
          0.35857242345809937,
          0.0868624895811081,
          0.03921583294868469,
          0.22165915369987488,
          0.22614160180091858,
          -0.049696024507284164,
          0.38258251547813416,
          0.18268036842346191,
          1.0034641027450562,
          0.3645654320716858,
          0.18001455068588257,
          0.27496537566185,
          0.1710655838251114,
          0.06882533431053162,
          0.2251131683588028,
          0.28830522298812866,
          0.25278589129447937,
          0.3968818783760071,
          0.2105245143175125,
          0.2467389553785324,
          0.446524053812027,
          0.41908109188079834,
          0.36509108543395996,
          -0.08193296939134598,
          0.4627048671245575,
          0.4655100703239441,
          0.09314844757318497,
          0.21589718759059906,
          0.19939546287059784,
          -0.31128546595573425,
          0.4281751811504364
        ],
        [
          0.014137303456664085,
          -0.10380306094884872,
          -0.125327467918396,
          0.08427833765745163,
          0.07022932171821594,
          0.09332333505153656,
          0.025595087558031082,
          -0.04989812895655632,
          -0.0839528739452362,
          -0.04688345268368721,
          -0.07273849844932556,
          -0.06774868816137314,
          0.014948070049285889,
          0.10593762993812561,
          0.012793004512786865,
          0.07194969058036804,
          0.035502515733242035,
          0.06528385728597641,
          0.07158806174993515,
          0.04206407070159912,
          -0.10759544372558594,
          -0.08971048146486282,
          -0.08028998225927353,
          -0.08801660686731339,
          0.10207684338092804,
          -0.08988937735557556,
          0.031993236392736435,
          0.1101008728146553,
          0.04528868570923805,
          -0.05808624252676964,
          0.017341909930109978,
          -0.026431147009134293,
          -0.046117402613162994,
          0.0771421566605568,
          -0.008329246193170547,
          0.0007221847772598267,
          -0.022481346502900124,
          -0.10302520543336868,
          -0.12716293334960938,
          -0.07622838020324707,
          0.07005596160888672,
          0.07583516836166382,
          -0.030842939391732216,
          0.055972982197999954,
          -0.024579336866736412,
          0.0502670519053936,
          -0.05319710075855255,
          0.11224861443042755,
          -0.06385105848312378,
          -0.08314183354377747,
          -0.0258343368768692,
          0.0240684412419796,
          -0.07787302136421204,
          0.09865251183509827,
          0.07766830921173096,
          0.029511626809835434,
          0.038334012031555176,
          0.04972453415393829,
          0.03288372606039047,
          -0.12590469419956207,
          0.017919357866048813,
          -0.006419626995921135,
          -0.05710023641586304,
          -0.08596941828727722
        ],
        [
          0.40538668632507324,
          0.25865793228149414,
          0.16439081728458405,
          0.14459216594696045,
          0.4330478608608246,
          0.049726590514183044,
          0.18242177367210388,
          0.49483975768089294,
          0.050933122634887695,
          0.31573212146759033,
          0.18856677412986755,
          0.14031438529491425,
          -0.0881209671497345,
          0.38959187269210815,
          0.013699978590011597,
          0.25481897592544556,
          0.24728424847126007,
          0.3297979533672333,
          0.2526831328868866,
          0.042268022894859314,
          0.012006118893623352,
          0.2689226567745209,
          0.24039891362190247,
          0.34317052364349365,
          0.32019680738449097,
          0.2750413715839386,
          0.2123676836490631,
          0.33188140392303467,
          0.3213307857513428,
          0.3761909604072571,
          0.1413763165473938,
          0.17808273434638977,
          0.23923182487487793,
          0.15979164838790894,
          0.27110710740089417,
          -0.02442920207977295,
          0.141720250248909,
          -0.3581583499908447,
          -0.12396372854709625,
          -0.2967985272407532,
          0.28183987736701965,
          0.42047053575515747,
          0.39782506227493286,
          0.4926644563674927,
          0.3896595239639282,
          0.46578866243362427,
          0.07449302077293396,
          0.2457059621810913,
          0.1945727914571762,
          0.21906976401805878,
          0.23076125979423523,
          0.09971794486045837,
          0.37422528862953186,
          0.16963686048984528,
          0.22857025265693665,
          0.26612749695777893,
          0.13162094354629517,
          0.11914781481027603,
          0.1698814183473587,
          0.25047847628593445,
          0.42281413078308105,
          0.18423888087272644,
          -0.8262850046157837,
          0.6144126057624817
        ],
        [
          0.2718973159790039,
          0.30128538608551025,
          0.35502469539642334,
          0.26148465275764465,
          0.4720825254917145,
          0.11152690649032593,
          0.4778030514717102,
          0.5300028920173645,
          0.06679579615592957,
          0.43163806200027466,
          0.1550842821598053,
          0.09984961152076721,
          0.032307714223861694,
          0.42552658915519714,
          -0.10270632803440094,
          0.2681388258934021,
          0.5030046701431274,
          0.25519537925720215,
          0.43291643261909485,
          0.08732648938894272,
          -0.001345515251159668,
          0.383240282535553,
          0.4261579215526581,
          0.21028940379619598,
          0.35038870573043823,
          0.35499316453933716,
          0.2679275572299957,
          0.38229507207870483,
          0.34493187069892883,
          0.3858973979949951,
          -0.23131094872951508,
          0.5025277733802795,
          0.25553348660469055,
          0.4598701298236847,
          0.4499981105327606,
          0.06974077224731445,
          0.4229509234428406,
          0.07922575622797012,
          0.011874165385961533,
          0.16596388816833496,
          0.401319682598114,
          0.8532218933105469,
          0.29188498854637146,
          0.17775148153305054,
          0.4084799885749817,
          0.3982953131198883,
          0.11909863352775574,
          0.274324506521225,
          0.3687898814678192,
          0.19326899945735931,
          0.23563973605632782,
          0.4054752290248871,
          0.21163812279701233,
          0.391905814409256,
          0.2546229958534241,
          0.22245490550994873,
          -0.054855551570653915,
          0.4074881970882416,
          0.4007991850376129,
          0.35347694158554077,
          0.3639485239982605,
          0.15123750269412994,
          -0.7496851682662964,
          0.5886088013648987
        ],
        [
          0.30087408423423767,
          0.2837536334991455,
          0.36764800548553467,
          0.04213642701506615,
          0.24015143513679504,
          -0.022662058472633362,
          0.3589896261692047,
          0.4669342637062073,
          0.14668120443820953,
          0.4237367510795593,
          0.40927737951278687,
          0.41348904371261597,
          -0.08311601728200912,
          0.3519754707813263,
          -0.0014699548482894897,
          0.25554317235946655,
          0.24119731783866882,
          0.4034787118434906,
          0.29704535007476807,
          -0.0527687631547451,
          0.08110694587230682,
          0.4668857753276825,
          0.4238217771053314,
          0.41459983587265015,
          0.5973186492919922,
          0.3764186203479767,
          0.4573052227497101,
          0.396305650472641,
          0.4980223476886749,
          0.4451436400413513,
          -0.13535115122795105,
          0.2813197076320648,
          0.3028060495853424,
          0.259548157453537,
          0.4646071493625641,
          0.11213517189025879,
          0.3969416916370392,
          -0.16095803678035736,
          0.14730197191238403,
          -0.2266121804714203,
          0.27007412910461426,
          0.5589261651039124,
          0.42025846242904663,
          0.46932336688041687,
          0.39300087094306946,
          0.3291899263858795,
          -0.00022487342357635498,
          0.28249481320381165,
          0.4060651361942291,
          0.4234141707420349,
          0.35965248942375183,
          0.22457434237003326,
          0.39356252551078796,
          0.3935477137565613,
          0.3994489312171936,
          0.3309052884578705,
          -0.045944955199956894,
          0.316662460565567,
          0.27085578441619873,
          0.25960224866867065,
          0.41658470034599304,
          0.44822317361831665,
          -0.6301673054695129,
          0.6339631676673889
        ],
        [
          0.32289808988571167,
          0.32281482219696045,
          0.249331533908844,
          0.12412607669830322,
          0.318707674741745,
          0.015080764889717102,
          0.19385047256946564,
          0.6089076399803162,
          -0.02568455971777439,
          0.19987942278385162,
          0.14406216144561768,
          0.174904003739357,
          -0.10970478504896164,
          0.4574970602989197,
          0.05401331186294556,
          0.18628068268299103,
          0.39698144793510437,
          0.3621322214603424,
          0.24115511775016785,
          0.02431470714509487,
          -0.1059984564781189,
          0.26992252469062805,
          0.23056131601333618,
          0.27064624428749084,
          0.45299234986305237,
          0.2743883430957794,
          0.19266550242900848,
          0.35226505994796753,
          0.39687496423721313,
          0.3032865524291992,
          -0.06960566341876984,
          0.03927469998598099,
          0.41012224555015564,
          0.24823223054409027,
          0.4415742754936218,
          -0.07808935642242432,
          0.19247210025787354,
          -0.2554355263710022,
          0.10582304000854492,
          -0.09012267738580704,
          0.2926304042339325,
          0.31444454193115234,
          0.34695377945899963,
          0.37270253896713257,
          0.4043331742286682,
          0.5094051361083984,
          -0.018647730350494385,
          0.3451152443885803,
          0.29613417387008667,
          0.40282294154167175,
          0.4625248908996582,
          0.3170764446258545,
          0.36663180589675903,
          0.26616552472114563,
          0.3308856189250946,
          0.3892795145511627,
          -0.029080070555210114,
          0.4640042781829834,
          0.4206916093826294,
          0.4874633848667145,
          0.2294074147939682,
          0.020716844126582146,
          -0.7689834237098694,
          0.5336356163024902
        ],
        [
          0.10389356315135956,
          -0.12393859028816223,
          -0.11719639599323273,
          0.01686975359916687,
          0.12429071962833405,
          0.09878817200660706,
          -0.09114842116832733,
          -0.02126537263393402,
          -0.09758156538009644,
          0.0559600293636322,
          -0.04853157699108124,
          -0.0890272706747055,
          -0.05990961194038391,
          0.05047401785850525,
          0.04145370423793793,
          0.07761341333389282,
          -0.0734812468290329,
          0.04566238820552826,
          0.12283407151699066,
          0.07690377533435822,
          0.04458846151828766,
          -0.10080321133136749,
          0.04208831489086151,
          -0.07650424540042877,
          -0.048252835869789124,
          -0.10374219715595245,
          0.024151578545570374,
          -0.007180169224739075,
          0.03950569033622742,
          -0.09348934888839722,
          0.09018298983573914,
          0.11668412387371063,
          0.09953087568283081,
          -0.05130171775817871,
          -0.0896783322095871,
          0.01736554503440857,
          0.008597657084465027,
          0.059087544679641724,
          0.012677833437919617,
          0.030900433659553528,
          -0.11534664034843445,
          -0.04059357941150665,
          -0.0015039294958114624,
          -0.054224103689193726,
          -0.028534263372421265,
          0.04554402828216553,
          0.03607885539531708,
          -0.041648656129837036,
          -0.014154821634292603,
          -0.040747836232185364,
          -0.1110391765832901,
          -0.11388146877288818,
          -0.09078215062618256,
          0.09756286442279816,
          -0.12441602349281311,
          0.12368407845497131,
          0.06419001519680023,
          -0.035693585872650146,
          -0.02019345760345459,
          -0.02221052348613739,
          -0.10013420879840851,
          -0.003313511610031128,
          0.07946860790252686,
          0.057099148631095886
        ],
        [
          0.006550580263137817,
          0.04455253854393959,
          -0.013448403216898441,
          0.02893044985830784,
          -0.06818928569555283,
          -0.04965570569038391,
          -0.03625068813562393,
          -0.12465719878673553,
          0.0030617862939834595,
          -0.016380423679947853,
          -0.030741438269615173,
          0.11750777065753937,
          -0.05454547703266144,
          0.1078338623046875,
          -0.019899949431419373,
          0.060025956481695175,
          -0.08013195544481277,
          -0.10007938742637634,
          0.11171287298202515,
          -0.11470536887645721,
          -0.009669989347457886,
          -0.12106353044509888,
          0.11953232437372208,
          -0.11164169758558273,
          0.1173776239156723,
          0.02389185130596161,
          -0.02236884832382202,
          -0.028497755527496338,
          -0.06728222966194153,
          0.06539317965507507,
          -0.005509428214281797,
          -0.027248919010162354,
          -0.11632233113050461,
          0.03489650413393974,
          0.04481390118598938,
          -0.03532925248146057,
          0.054133784025907516,
          -0.010125130414962769,
          0.03412696719169617,
          0.02129378914833069,
          -0.10791689157485962,
          -0.009628430008888245,
          0.10340727120637894,
          -0.1172749251127243,
          -0.11759807914495468,
          0.12111960351467133,
          -0.10127823054790497,
          -0.046817101538181305,
          -0.01240917295217514,
          -0.07662138342857361,
          -0.04531213641166687,
          -0.06991317123174667,
          -0.052478939294815063,
          0.05619475990533829,
          0.0849875956773758,
          -0.12676382064819336,
          0.09759402275085449,
          -0.11228048801422119,
          -0.05158654972910881,
          0.08763812482357025,
          0.09521341323852539,
          0.059475988149642944,
          -0.11399810016155243,
          0.09574972093105316
        ],
        [
          0.06206999346613884,
          0.019814560189843178,
          0.322616308927536,
          0.7466410994529724,
          -0.14217056334018707,
          -0.05401362478733063,
          0.3865757882595062,
          -0.010649236850440502,
          -0.0014245128259062767,
          0.14934971928596497,
          0.06194736808538437,
          -0.02773197926580906,
          -0.03460141271352768,
          -0.3342454433441162,
          -0.09897918999195099,
          0.21913118660449982,
          -0.12511223554611206,
          -0.05208014324307442,
          0.19478771090507507,
          -0.11489969491958618,
          -0.08705762028694153,
          0.0750250369310379,
          0.09902630746364594,
          0.11099886894226074,
          0.03764595836400986,
          0.041148312389850616,
          0.40190649032592773,
          0.17824625968933105,
          -0.581324577331543,
          0.15857361257076263,
          -0.4670232832431793,
          0.9844985604286194,
          0.12127865105867386,
          0.2552567422389984,
          -0.18537120521068573,
          -0.04882289469242096,
          0.15924644470214844,
          1.0564014911651611,
          0.06594715267419815,
          1.1447073221206665,
          0.0694691464304924,
          0.7085211873054504,
          -0.007430477067828178,
          -0.08345752209424973,
          -0.1588219255208969,
          -0.26476505398750305,
          0.09127296507358551,
          0.03130478411912918,
          0.2128007560968399,
          -0.10735022276639938,
          0.05764755606651306,
          0.32173585891723633,
          -0.19603058695793152,
          0.3639506697654724,
          0.3979026973247528,
          0.14389090240001678,
          -0.08343113213777542,
          0.38508549332618713,
          0.14437027275562286,
          -0.04999880865216255,
          0.025710366666316986,
          0.11118081957101822,
          0.5551669597625732,
          0.06970901787281036
        ],
        [
          0.23324142396450043,
          0.20793671905994415,
          0.1536417156457901,
          0.48582568764686584,
          0.02276238612830639,
          -0.11406096816062927,
          0.31009641289711,
          -0.10185957700014114,
          -0.05308883264660835,
          0.09749975055456161,
          0.1204308345913887,
          0.3177645802497864,
          0.04623546451330185,
          -0.03192628175020218,
          0.07902823388576508,
          0.2110828459262848,
          0.057690560817718506,
          0.16897869110107422,
          0.022680919617414474,
          -0.04966668784618378,
          -0.028116688132286072,
          0.02441943623125553,
          0.1071215346455574,
          0.1751697063446045,
          0.211867094039917,
          0.13010543584823608,
          0.1213729977607727,
          0.1127612441778183,
          -0.3022013306617737,
          0.1337055265903473,
          -0.44131216406822205,
          0.612449049949646,
          0.014422275125980377,
          0.26504644751548767,
          -0.03107796423137188,
          -0.10889056324958801,
          0.2448062300682068,
          0.7393026351928711,
          0.23305648565292358,
          0.7233719825744629,
          0.12903137505054474,
          0.4029877483844757,
          0.05682135373353958,
          -0.014164806343615055,
          0.0028005691710859537,
          -0.04106850549578667,
          0.0227811336517334,
          0.20406271517276764,
          0.24064217507839203,
          0.11343510448932648,
          0.16510847210884094,
          0.1264837235212326,
          -0.13329611718654633,
          0.24587872624397278,
          0.34238335490226746,
          0.07478608936071396,
          0.04464276134967804,
          0.16216690838336945,
          0.3443053662776947,
          -0.08655134588479996,
          0.06267721205949783,
          0.021356668323278427,
          0.46400898694992065,
          0.01570962183177471
        ],
        [
          0.37911415100097656,
          0.35352981090545654,
          0.40349119901657104,
          0.21198347210884094,
          0.17016348242759705,
          0.02396184206008911,
          0.46996980905532837,
          0.44328758120536804,
          0.043526146560907364,
          0.4662192165851593,
          0.20211347937583923,
          0.345333456993103,
          -0.09734155982732773,
          0.08312191814184189,
          -0.09792488813400269,
          0.28749802708625793,
          0.2966052293777466,
          0.2709711790084839,
          0.2187442183494568,
          -0.07167095690965652,
          0.07216420769691467,
          0.24274210631847382,
          0.40053460001945496,
          0.4462495744228363,
          0.45643091201782227,
          0.32172465324401855,
          0.35235536098480225,
          0.48767054080963135,
          -0.06088479608297348,
          0.433224081993103,
          -0.6004034876823425,
          0.6027161478996277,
          0.2778991460800171,
          0.4542653262615204,
          0.29333239793777466,
          -0.11584669351577759,
          0.3659255802631378,
          0.1761002093553543,
          -0.013491894118487835,
          0.4065606892108917,
          0.417265385389328,
          1.0526665449142456,
          0.26851513981819153,
          0.039131421595811844,
          0.2189248502254486,
          0.13012255728244781,
          0.10039596259593964,
          0.27279025316238403,
          0.4961915910243988,
          0.28027257323265076,
          0.3869379460811615,
          0.3253341317176819,
          0.2303982526063919,
          0.399157851934433,
          0.4593900442123413,
          0.3865928649902344,
          0.07002885639667511,
          0.4695958197116852,
          0.4635763168334961,
          0.25424426794052124,
          0.23686249554157257,
          0.2162785679101944,
          -0.294791042804718,
          0.5194905400276184
        ],
        [
          0.29577046632766724,
          0.36069896817207336,
          0.23996728658676147,
          0.09819283336400986,
          0.16749905049800873,
          -0.05903331935405731,
          0.3919733762741089,
          0.5953419804573059,
          0.007547991815954447,
          0.267089307308197,
          0.31368598341941833,
          0.3241320848464966,
          -0.11946330964565277,
          0.3345562219619751,
          0.01142449676990509,
          0.29492729902267456,
          0.3027811348438263,
          0.19082243740558624,
          0.22942465543746948,
          -0.027961473912000656,
          -0.09601117670536041,
          0.3130548298358917,
          0.40109944343566895,
          0.17891404032707214,
          0.39186543226242065,
          0.25063571333885193,
          0.29712721705436707,
          0.13503113389015198,
          0.4347809851169586,
          0.3742133378982544,
          -0.23324836790561676,
          0.28959009051322937,
          0.35053831338882446,
          0.1830439567565918,
          0.22252744436264038,
          -0.0013551712036132812,
          0.2576857805252075,
          -0.044769059866666794,
          -0.005532286129891872,
          0.021241556853055954,
          0.3396688997745514,
          0.6708760857582092,
          0.4147299826145172,
          0.3090726137161255,
          0.3052959144115448,
          0.271345853805542,
          -0.08561563491821289,
          0.3860619366168976,
          0.19665147364139557,
          0.3747045397758484,
          0.30318525433540344,
          0.3777593672275543,
          0.2152872383594513,
          0.3288184106349945,
          0.30277082324028015,
          0.15915009379386902,
          -0.03081231750547886,
          0.3216295838356018,
          0.39527270197868347,
          0.3148854672908783,
          0.3329399824142456,
          0.32317066192626953,
          -0.617076575756073,
          0.5751470327377319
        ],
        [
          0.090152807533741,
          0.047881752252578735,
          0.3561214506626129,
          0.6246787309646606,
          0.1284686177968979,
          0.03305360674858093,
          0.39679718017578125,
          0.13340045511722565,
          0.12010707706212997,
          0.1233789399266243,
          0.13542352616786957,
          0.057963550090789795,
          -0.03950650990009308,
          -0.2361137568950653,
          -0.05045817792415619,
          0.28566473722457886,
          -0.02955007553100586,
          0.061186112463474274,
          0.2431401163339615,
          -0.03251165151596069,
          0.10499663650989532,
          0.13330772519111633,
          -0.01937752217054367,
          0.14202247560024261,
          0.2647021412849426,
          -0.011834840290248394,
          0.2861410677433014,
          0.1341422200202942,
          -0.4225471317768097,
          0.25297707319259644,
          -0.45627927780151367,
          1.0258811712265015,
          0.09144559502601624,
          0.19842474162578583,
          -0.09893370419740677,
          0.06276470422744751,
          0.19880738854408264,
          1.0308337211608887,
          0.00984177365899086,
          1.2236497402191162,
          0.2049551010131836,
          0.7927301526069641,
          -0.04230259358882904,
          0.006670315749943256,
          -0.1233820766210556,
          -0.2677323818206787,
          -0.047698765993118286,
          0.13628505170345306,
          0.10307929664850235,
          -0.10002870112657547,
          0.1287589818239212,
          0.3092220425605774,
          -0.33890169858932495,
          0.2610756754875183,
          0.3038604259490967,
          0.057435087859630585,
          0.053754761815071106,
          0.3436608910560608,
          0.366599977016449,
          -0.027410712093114853,
          0.07411906123161316,
          0.07583661377429962,
          0.2804495096206665,
          0.3582744598388672
        ],
        [
          0.2418416291475296,
          0.21802611649036407,
          0.18081744015216827,
          0.40000978112220764,
          0.2495642453432083,
          -0.1132146567106247,
          0.5523544549942017,
          0.5965295433998108,
          -0.08313912153244019,
          0.2496568113565445,
          0.16144651174545288,
          0.2193836122751236,
          0.06786703318357468,
          0.1714489609003067,
          0.042236924171447754,
          0.38790515065193176,
          0.3622976839542389,
          0.08345626294612885,
          0.2964235246181488,
          -0.06851924955844879,
          0.028782561421394348,
          0.41405975818634033,
          0.4635137915611267,
          0.3149425983428955,
          0.662845253944397,
          0.19185514748096466,
          0.46613213419914246,
          0.532220721244812,
          0.06795696169137955,
          0.4477488696575165,
          -0.6815528273582458,
          0.5273551344871521,
          0.34198200702667236,
          0.6068828105926514,
          0.2669793665409088,
          0.051004961133003235,
          0.4110409617424011,
          0.3652022182941437,
          -0.04860338941216469,
          0.3683522343635559,
          0.30976417660713196,
          0.8412389755249023,
          0.33383405208587646,
          0.25921496748924255,
          0.3257666826248169,
          0.20055073499679565,
          -0.07015068829059601,
          0.4303382337093353,
          0.48516392707824707,
          0.15003980696201324,
          0.4245268404483795,
          0.405346542596817,
          0.20234376192092896,
          0.360213041305542,
          0.2577119767665863,
          0.2834644913673401,
          0.015514758415520191,
          0.48191574215888977,
          0.3380957543849945,
          0.1259385049343109,
          0.2918194830417633,
          0.1658588945865631,
          -0.32004696130752563,
          0.6447835564613342
        ],
        [
          0.009944177232682705,
          0.08587905764579773,
          0.3870124816894531,
          0.8926733732223511,
          0.12717430293560028,
          0.08100157976150513,
          0.3193734288215637,
          -0.004294659476727247,
          -0.13357645273208618,
          0.1006760522723198,
          -0.007767843548208475,
          -0.03707170858979225,
          -0.09696266800165176,
          -0.31123456358909607,
          -0.046924203634262085,
          0.15516147017478943,
          -0.06306289881467819,
          -0.2099364548921585,
          0.15512792766094208,
          -0.06774701178073883,
          -0.007406130433082581,
          -0.004236556589603424,
          -0.012441243045032024,
          0.2400614619255066,
          0.2945018708705902,
          -0.07933955639600754,
          0.15025180578231812,
          0.12713134288787842,
          -0.1850183755159378,
          0.20175792276859283,
          -0.32011353969573975,
          0.6706656813621521,
          -0.027805965393781662,
          0.3206362724304199,
          -0.2627129554748535,
          -0.01650327444076538,
          0.1326325684785843,
          0.932023286819458,
          -0.06583786010742188,
          1.0273804664611816,
          0.06499316543340683,
          0.6337496042251587,
          -0.023263201117515564,
          -0.18041810393333435,
          0.01330135203897953,
          -0.14973972737789154,
          0.060429930686950684,
          -0.04926096647977829,
          0.029897229745984077,
          -0.10660579800605774,
          0.07934241741895676,
          0.32876157760620117,
          -0.22745361924171448,
          0.2290448695421219,
          0.3013852536678314,
          -1.2816613889299333e-05,
          0.016662022098898888,
          0.2732948958873749,
          0.14011768996715546,
          -0.15094022452831268,
          -0.11814533919095993,
          0.012708969414234161,
          0.45276424288749695,
          0.13419300317764282
        ],
        [
          0.01447969675064087,
          -0.06341659277677536,
          -0.04156578332185745,
          -0.03541594743728638,
          -0.08171990513801575,
          0.10152864456176758,
          0.1196264699101448,
          0.00035700201988220215,
          0.054038166999816895,
          -0.07986442744731903,
          -0.03470461070537567,
          -0.05937904119491577,
          -0.09805996716022491,
          0.07909630239009857,
          0.05456157028675079,
          -0.021076612174510956,
          -0.10330460965633392,
          0.05736677348613739,
          0.07588239014148712,
          -0.04928593337535858,
          0.10227906703948975,
          0.006336895748972893,
          0.09041032195091248,
          -0.018536590039730072,
          -0.0008248835802078247,
          -0.07459460943937302,
          -0.01826094463467598,
          -0.12741702795028687,
          0.06824891269207001,
          0.057165324687957764,
          -0.09168282151222229,
          -0.05351071059703827,
          -0.06819173693656921,
          -0.03246048837900162,
          -0.03643963113427162,
          0.11945424973964691,
          0.041827455163002014,
          0.10950203239917755,
          -0.025980673730373383,
          -0.05471029877662659,
          -0.10802847146987915,
          0.059344738721847534,
          -0.08815233409404755,
          -0.008446735329926014,
          -0.09032230079174042,
          -0.11045438051223755,
          -0.11702540516853333,
          -0.10874369740486145,
          -0.11540097743272781,
          0.013593971729278564,
          -0.0009093679254874587,
          0.060085829347372055,
          -0.05438104271888733,
          -0.009213371202349663,
          -0.08404894173145294,
          0.025160182267427444,
          -0.009266495704650879,
          -0.0328395776450634,
          0.06554799526929855,
          -0.0368725061416626,
          -0.07066721469163895,
          -0.06441746652126312,
          0.10556119680404663,
          0.1180543303489685
        ],
        [
          0.2788970172405243,
          0.3067343831062317,
          0.32879638671875,
          0.18059082329273224,
          0.37485620379447937,
          -0.01977364718914032,
          0.1801781803369522,
          0.6552474498748779,
          0.03707912564277649,
          0.29683658480644226,
          0.3626382052898407,
          0.25227904319763184,
          0.10148242115974426,
          0.2620176672935486,
          -0.05896313488483429,
          0.3883912265300751,
          0.3050597906112671,
          0.17815135419368744,
          0.2729223072528839,
          -0.05100815370678902,
          0.062088266015052795,
          0.4253505766391754,
          0.3538445234298706,
          0.31820207834243774,
          0.3757825791835785,
          0.35268309712409973,
          0.24567998945713043,
          0.20684567093849182,
          0.4561125636100769,
          0.2881239652633667,
          0.00812548492103815,
          0.2762450873851776,
          0.21506844460964203,
          0.34272587299346924,
          0.49206358194351196,
          -0.07601191103458405,
          0.2264510542154312,
          -0.20227891206741333,
          -0.06314247101545334,
          -0.17338454723358154,
          0.40704986453056335,
          0.47720685601234436,
          0.35408464074134827,
          0.2675330340862274,
          0.35873985290527344,
          0.26912721991539,
          0.08539247512817383,
          0.37879952788352966,
          0.24987344443798065,
          0.3533163070678711,
          0.26426976919174194,
          0.28830716013908386,
          0.3416035771369934,
          0.3692142367362976,
          0.19788676500320435,
          0.27568578720092773,
          0.08430083841085434,
          0.36714765429496765,
          0.31689390540122986,
          0.2551907002925873,
          0.4462290108203888,
          0.11033201217651367,
          -0.5055019855499268,
          0.4876827597618103
        ],
        [
          0.02803553082048893,
          0.041568804532289505,
          -0.07409178465604782,
          -0.09958470612764359,
          -0.1244257390499115,
          -0.04331967234611511,
          0.06675197184085846,
          -0.06574659049510956,
          -0.0642789751291275,
          -0.1283971071243286,
          -0.11979549378156662,
          0.10089220106601715,
          -0.04279134050011635,
